{"sizes": [14, 30, 5], "weights": [[[0.11340348064149856, -0.0762674382635885, 0.08873705592360329, 0.255113766014626, 0.3786147367254378, -0.06204324917727464, -0.18107335785300985, 0.04366404413040858, 0.21095489129126668, 0.07639066863249452, -0.17789385520346684, 0.17355062316731049, 0.15612392114115498, -0.11529712390800707], [-0.14265088031947715, -0.49531986677606016, 0.5025596056501754, 0.18454180492057815, 0.4966851933727668, -1.1188208205553967, 1.2327879307420828, 1.6624193973015366, 1.0319207228511822, -0.24922059440951827, -1.0037878349609004, -1.522336414025166, -1.7542169488297201, -0.511837367907104], [-0.1465157637089747, 0.3718418121660132, -0.22244277691297068, 0.07153983312725805, -0.09657928603462633, -0.1503654840631552, 2.2076800960846468, -2.5126663970164302, -1.022344100984264, 0.01589359623726859, 0.14132508370581487, -0.12819037052856375, -0.3169261305265647, 0.4237005906682807], [0.04315172452493148, -0.2528798212747458, 0.10732360455214983, 0.1305468083643532, -0.6539011915412498, -1.182753416562661, 7.411939966515205, -6.47834368387452, -3.2189141995832933, -0.16080396092292285, -0.19216198929576808, -0.4458576162839294, -0.6483215025839679, -0.5154979158929468], [0.28237819133738024, 0.003618666243343208, 0.32129459371968927, 0.16155844758243348, 0.4376418528324438, 2.0511492570199135, -3.2458025956888936, -0.20348039284603112, 0.8258383908610806, 0.33315919955192025, -0.1246618249016635, -0.6055079064907866, -0.14281462998089925, 1.1249318342241605], [-0.21132775041680313, -0.6132202486354895, -0.21161669107464187, 0.10961071766474001, 0.46553577890912945, 0.1190513046305724, -1.7247393383969054, 2.2706278181885566, -0.024684380477691826, -0.3095302333639612, 0.19237845026048542, -0.19857663512919804, -0.09503511127883375, -0.23578650158640488], [0.1291490786489147, 1.64541281436017, -0.33216625621773566, 0.8463715398289949, 0.6224050579498209, -0.9757011731744897, 1.2876091442506439, 0.8466644119133544, -0.7326131799265093, -0.5426956100092215, -0.38340271017944655, -0.409957754269113, -1.6358296133365517, -0.34860899051827215], [0.10202001959730903, -0.4460992899233096, 0.28986688321807313, -0.35429454792170534, 0.3329115363105437, 0.8468124903400908, -0.7018322237523901, -0.49583450615439306, 1.4915037150702721, -0.5749711127129435, -1.4162065670334865, -1.5024451871357343, -0.19033306321156737, 0.8266623866786778], [-0.49737997219219665, -0.04211985522674252, -0.2753351968014699, -0.47411982071763126, -0.3993933239557679, 1.464814238393312, -2.5758826078801818, -0.9251693374361212, 0.02731032676236342, 0.07217285946426098, -0.22826145972052395, -0.3797596254503781, -0.012521989295091943, 1.2035559651584302], [-0.2869202786673999, -0.05961181498651883, -0.008802161052494095, 0.19379017572705792, 0.6626092943391212, -0.2203384606616409, 1.1529558924230463, 0.7874234806511416, -1.4287315046779585, -0.05190431190282185, -0.005190816202421778, 0.11182777128264856, -0.41863757967450277, -0.44985607898015334], [0.013075296080173517, 0.16444900649731978, -0.31129743028684437, 0.4585944089760156, 0.696493247723964, -3.83880295439358, 6.381333047260155, 6.119421859654831, 13.353256305595387, -0.043746805622038455, -0.010901270732559561, 0.09613508609936797, 0.3081984284921933, -1.809242615512353], [-0.1911073825412228, -0.3818272034535205, -0.2388847477525246, 0.03684217691958621, 0.5051020518430167, 0.22341613089406345, -0.04117834521643971, -0.31197340158268627, -0.10256122673884473, 0.16753880277598698, -0.3757633059661267, 0.22853248307916182, -0.015858684892000124, -0.13016166204059956], [-0.06892935354950395, -0.0998234809137089, 0.5870155790029147, 0.4323589061872378, -0.03515167349572108, 0.20421382104467278, -3.319438290014653, 1.896514847567885, 1.2713640866040032, 0.08304111863917056, 0.02262855964734231, -0.0049636731916699655, -0.3178880840852715, 0.34303459394295005], [-0.1794495979777354, 0.3115194931672509, -0.05776469946774234, -0.17245883334234213, 0.06414783256890659, -0.6532688976987957, -0.06027301713784862, -0.16776771388662193, -0.19299500968674857, -0.00029543108560968066, -0.14755182596507913, -0.5212547788866105, -0.08033730945636423, -0.18886747182810876], [-0.028170179743793, 0.1285528774545511, -0.5033389146949171, 0.7697601513222965, 0.3856790028342848, 0.6646395680824381, -4.742562301782893, 4.000635260777624, 0.46980481941523583, -0.12735657172983225, 0.01860553341578891, -0.24363800975739275, -0.09086700440709035, 0.20688663520375936], [-0.0956752309648075, 0.3751817543620466, 0.037342510368860715, 0.7089719304758625, 0.4367198838963035, -1.4063507478916577, 1.8972999731172542, 0.9967528456020021, -0.854493790491334, -0.03454325496563802, 0.6440034392909169, 0.8344117783698692, 0.1575700984767495, -0.24775089733765351], [0.16928508652713503, 0.09641808111292278, 0.2682680724731766, 0.5469687946647365, -0.1445941962391115, 0.32386219207148215, 1.4943506111975071, -1.0620685192311103, -0.9463636403117762, 0.6622372113617557, -0.011870020233467367, -0.017887161627088536, 0.4381566519085632, 0.12674881629426124], [0.24638621947105607, -0.35050840737672695, -0.2960610292278044, 0.3141170500309286, 0.6887248557939409, -0.4580289004567846, -2.1891132966516684, 4.392946154473521, -0.578132354130649, 0.22253762010765166, 0.09501823100397633, 0.2222214946090838, -0.14688286423394037, -0.2483906238876333], [-0.06747017203790207, 0.23362299690052463, 0.07349738355175782, -0.44797792044946455, -1.2822911287931484, 0.9363946684249439, -2.228564825956308, -2.045445000349823, 1.1444282002219004, 0.08184467574580595, 0.38284821126768454, 0.43200492181772016, -0.14406245103458873, 0.6447090927818832], [-0.15144699204399922, -0.2353537620423427, 0.042772271630386036, -0.49382097588353396, -0.5161328885349841, 1.4515993343993259, -2.9389089271754263, -0.990611013688628, 0.5310750177405557, -0.06787687050519604, 0.08885481853091613, -0.03833826871652382, 0.5384412242318073, 0.9708237719827542], [0.051165178309441034, 0.12972031519571653, -0.28941934661834046, -0.5878771064209616, -1.0499795366588367, 2.4288511315778507, -7.456827475814651, 1.1624861229232357, 0.5892015626743523, -0.2833991600361818, -0.1467866408602971, -0.09849924962257582, -0.13088747677384965, 0.8629605228184044], [-0.11174544432101788, -0.00019190284495458707, -0.15604954290925102, 0.52326095966985, 0.819784169812257, -1.5480816622953977, 2.560666646946009, 3.4877334449722053, 1.6220828629428439, 0.039215389441204354, -1.522625210843564, -2.4226728812089284, -2.342529278850319, -0.6567072078786694], [-0.04313020794768561, 0.2823931035092451, -0.0813665860086176, 0.7896768406585293, 1.8427132254489778, -1.625103914971488, 3.041710062451826, 1.929430151278831, -2.744386125505293, -0.28157686031821155, 0.35959172452055826, 1.1022288572087162, 0.5807863497727038, -0.7012621000900894], [0.1778911503008228, 0.2509261527553839, -0.20220775529683954, 0.38746296638942823, -0.11114867570504061, 0.2635730667211786, -3.371706668737249, 2.012204546925988, 0.6553081369218046, 0.13512623153705702, -0.17045001193918538, -0.010036547210005409, -0.28904887914462657, 0.06926506331066862], [-0.06970619912936257, 0.06676333268620749, 0.2206675642680769, -0.04514596447692268, -0.4734516511218771, -0.06233034032901677, -0.08465276705557435, -0.4165868170407587, -0.19100658593178454, 0.09888911027990223, -0.019195716637429864, -0.12571266869279493, -0.077225436117321, 0.19202138732046636], [0.08011575292860913, -0.048223980471171164, -0.08382506328512333, 0.41041390433770714, 0.9243167312420579, -0.3006030578850505, 1.027122121511941, 1.9985543324365291, -0.8366281885772787, -0.25472383559092665, -0.29243349564457244, -0.8595241908909281, -0.639773776941578, -0.9460217598556556], [-0.6173437890416066, -0.1706129370825697, -0.09754356894840081, -0.3658920423504637, 0.133576316921291, 0.0895983177503986, -1.7387361427642127, 1.4260023607778964, 0.0015174757643105314, -0.14808778415363588, -0.21182703674025383, -0.15759555350552049, -0.2732033894233146, -0.2577970445783857], [-0.15719539506224336, 0.1463059091899982, 0.13286616208840044, -0.3538213628436318, -0.17723696584842916, 1.7079555647328861, -1.6603015927575566, -3.3637358473468986, 2.1448957244370543, -2.362548704104895, -1.9247764416455844, -0.7837890954210498, -0.25175851250844, 1.6032733744454202], [-0.23546178612289442, -0.23208534718549226, 0.07793039204606397, -0.15593706693114406, 0.6078725676010043, 0.1838749274015479, 1.6602100246094667, -0.9861750888069167, -1.0315525850247993, -0.12327200322089997, 0.20298108605323306, -0.2850417532414645, -0.17829092429348978, -0.2050054153662094], [0.02345839878863682, -0.03299728316453021, 0.18308132049760428, 0.38644904440503597, -0.6575690616428325, -0.3039959215453979, 0.09439583791785235, -0.038519114899852, 0.7241778726892689, 0.016478016600721103, 0.05663465553791604, -0.004753106750684418, -0.23674739964942504, -0.1240876212898663]], [[-0.4176824951329633, 0.1583921503464777, -0.1426259840617583, -0.26038848546085314, -0.2819984513835035, -0.21800542265068398, 0.26965210041435395, -0.46197773114796825, -0.3537152692846018, 0.06037330040072067, -0.14843825190991408, -0.10366575332033492, -0.46386946693317344, 0.34841638939247893, 0.1248690055472191, -0.03580829527338719, -0.42639136227972185, -0.4285438307513708, -0.43223814812103045, -0.8022560944961756, -0.38677245691345125, -0.2650301310364843, 0.15488382802655667, -0.3593836888298395, -0.3493050691208221, -0.07658704988054908, -0.2807967512469333, -0.35980171929654065, -0.24114951394718184, -0.45547324992163335], [-0.15795875404176943, 0.4756732141732533, -0.12337043423880427, -0.0041554436201260815, 0.3078211004679401, 0.2186921118424811, -0.1849570767044562, 0.044939834755508126, -0.15381810326756873, 0.42846100495826056, -0.8876374019914443, 0.16475817930255768, 0.08475194267715361, -0.02124855738491591, -0.5573854740914839, -0.36847622120249507, -0.3182432457758877, -0.19553004072425584, -0.7613313484655423, -0.31005407028080456, -0.44140130931334004, -0.13156042779073884, 0.08977076644187909, -0.5123424160900737, -0.5378221493256882, 0.4975364628124071, -0.14708233862450876, 0.14349873966282586, 0.2599958322403594, -0.26635100972476017], [-0.20009441153361232, -2.344562178166561, -0.11373406497248836, -1.3766049105831866, 2.28902387123748, -0.6691889990870438, -2.4796389548417364, 1.8865946692189313, 1.9575785346183396, -2.2176291086368654, -9.18874706921296, -0.03013585710408858, 1.1554094698935908, -0.23387760216983194, -0.28245419923839565, -2.222177901285407, -0.598339379436309, -2.5149086306644137, 3.948661165724316, 2.6235469830355678, 5.039344254040203, -4.772174401176878, -5.395770886768047, 0.6790606306007337, 0.16647091801868313, -3.201063630173411, 0.05497041495643786, 4.338564080671824, -0.45252972729959845, 0.46486365967880405], [-0.6685471266452709, 1.2223109175143634, 2.610063230569324, 9.326218792601628, -3.459427454444432, -2.306802042271477, 1.493196789193577, -0.9808492125968532, -2.2956501690207167, 0.3147423554730804, 10.614545337680521, -0.09748009937872905, -3.4769597083117327, 0.35919219005589836, -5.944505569232934, 1.4140563803642845, 1.344275914489161, -3.6871854546015292, -0.9944856792219571, -2.5751514458963243, -6.407901861624391, 1.9185669582607758, 1.0458010058011575, -3.6365034871454216, -0.021754092420978047, 0.4285156501572704, -1.8293008530953443, -1.3715123325637897, 1.8171123791862378, 0.274112534446381], [-0.10084727359264686, 2.352824233471818, -2.427385451466466, -5.498103119933793, -0.7115364263330662, 1.797894672094563, 0.37055705364769626, -1.3410710598386784, -1.5260382011844609, -0.2188558715294767, 0.19243031019391058, -0.38711587631907407, 2.2717959131303154, -0.16693383759042682, 2.435680701869243, 1.0486739379481376, -1.6895149322736778, 2.4350061005233834, -0.4648540964044752, -0.8738575285569887, 2.492965219459133, 3.770934168974767, 0.7337724064421597, 1.7465342599809413, -0.5409051916478457, 0.748500534472904, 1.4302656689388071, -3.8296843610310045, -0.6261534826284643, 0.35437031340830877]]], "biases": [[[1.6804796947134453], [0.14230471471144224], [0.7062288943572437], [3.1240994143597836], [-0.417149040872759], [0.5209369912797475], [-1.1627206475401632], [2.1149771966323088], [0.5408134747702001], [0.5085360121173647], [-8.656019966503184], [-0.9166722054238142], [-1.0201732530138186], [-2.0935222181936908], [-0.29052342943698695], [-0.7381573156014652], [0.7539333096508848], [0.18117038844978597], [-0.7767947674481932], [0.04361164017721848], [-0.18690873753376402], [-0.43180966995417125], [0.056157842952358955], [-0.8134658222669655], [2.3247399100600967], [0.7197371287696354], [0.5908090149700526], [1.8859778807435088], [1.2922998426996508], [0.6575215712339879]], [[-1.0990715618552915], [-1.750527395467771], [2.131081903755232], [1.295781735110176], [-0.5712307277406694]]], "cost": "CrossEntropyCost"}