{"sizes": [14, 30, 5], "weights": [[[0.3273418531662751, -0.29980042581430455, -0.3524580758136472, 0.018944540949515462, -0.036429593230694154, -0.25807578140587223, -0.11535880568883232, -0.08124868460968518, -0.22724535356073564, -0.23350326457054818, -0.05418917450474194, -0.07321686917588956, 0.3257637764801207, 0.30093853239810864], [-0.4407950085447412, -0.2533271469909939, -0.3437437388354171, 0.014811526921665437, 0.18871064104182747, -0.09853494201910802, 0.2664874874482195, 0.2783052353580451, -0.5967307268328751, 0.04145081059601701, 0.0029439506232133874, -0.6383498571675627, 0.3951810036794058, -0.17730125814373515], [0.20281455396570106, -0.03396992667122249, -0.26213125350547, 0.02733940001400033, 0.14752462331672475, 0.029456051331079907, -0.10213650285911494, 0.12502680006496586, -0.2275132328138628, -0.42962171243485314, 0.1995265838183579, -0.2273670031583563, 0.3336224240684417, -0.04667726146321419], [-0.11845941195950643, 0.1300434416732652, -0.0015145647346441664, 0.09782522374412414, 0.12715211405529359, 0.16651905118850382, 0.5648673106795776, -0.2228732163563561, 0.04541076251131998, 0.1900182746768246, 0.14954416736975049, -0.08723009551849437, -0.4061345892913864, -0.018859481094978245], [-0.1949112047499329, 0.12448119182830378, -0.19476374273505484, -0.004803196235501563, -0.31881794734628766, -0.26036858612848945, 0.08142020129708262, -0.19935344122123555, -0.16131701997481288, -0.4234362253322867, 0.1895482843411526, -0.0807258027221087, 0.1608348822626454, 0.020022476328505623], [-0.028961068446820313, 0.13516038990775228, -0.20727796065301657, -0.026651273054633124, -0.2752903563278236, 0.4498805287986801, 0.13821355604572264, 0.12532514280979096, 0.1250642738321263, -0.46342617446467105, -0.1267265334630316, 0.13249151841626453, -0.1312289246364206, -0.2594654570646222], [0.029688615891089565, 0.11784861274051815, -0.2545385991651038, -0.27917545449298453, -0.2993992571401833, -0.02825081825565528, -0.11443760097881779, 0.039824099601968595, 0.5499706930958833, -0.32489946377129986, 0.24939249786149115, 0.477023310841824, 0.0021739744933994293, -0.018466422599287224], [0.009696930584075836, -0.16658668599941384, -0.15232085795743383, 0.3758470422446735, -0.21651962169380734, -0.021678535734732537, 0.45324447563543757, 0.07652515345761361, -0.4758872602133463, -0.3033718549707015, -0.014588649914420194, 0.3612995454171272, -0.1685133842932008, -0.047822280892258644], [0.11046232993542458, -0.05660451200072037, 0.0694117073530604, 0.3246798470791635, -0.26859461240302834, -0.19886171373288383, 0.08217503126924587, 0.2042758422023614, 0.07978501221700302, -0.0601432955433531, 0.03280519282230977, 0.5378216429334125, -0.152965472123535, 0.02148013580037891], [-0.1250889236158067, -0.07951529458143893, 0.4959988434628918, 0.493851187385358, -0.24433535640121704, -0.3861363824192533, -0.2880021454632413, -0.28136371319428144, 0.21533797751483533, 0.06765643639365009, 0.25284744972025286, 0.030642287049048488, -0.3063194226974945, -0.09814133834854148], [0.20308954814654465, -0.12200269388216012, 0.11781978116656229, -0.5158225149069507, 0.16284919785571703, -0.19630676722779009, -0.3438527859351228, 0.15520753235090615, 0.1865826260078435, -0.01750148505993, 0.18325807449587572, 0.23420610489224813, 0.18182791372763749, 0.22031965602288636], [-0.27477931476071404, 0.15967832457553824, 0.07978736748944659, 0.2920041923229386, -0.137737830334887, -0.077266786505351, -0.16623970237696703, -0.289137862312716, -0.2608743987723566, -0.38342187170354103, 0.2825100907251223, -0.4442158286459376, 0.01637674665551838, 0.6761840522854355], [0.002550501084906747, -0.0687735114504846, -0.011528530099055221, 0.09053182542851687, -0.4880536882851146, -0.3241821844873701, 0.08514451772906334, -0.12231943521543476, 0.43681354178016896, 0.05403140105082639, -0.09214074881471133, 0.30673437546404203, -0.18306295204688652, 0.02872254821094842], [-0.36419544964670636, 0.16144977973998148, -0.4525605472133056, 0.17020113313641458, 0.11458551316487577, -0.1331978644292851, -0.21204518487573704, -0.1372410827372669, -0.3336928078391557, 0.04874129262251934, -0.2057386751972289, -0.4994852923879634, -0.11780576178006652, 0.7128888254198752], [0.14807403822314963, 0.6035580021845518, 0.442725050472602, 0.11245773151109717, 0.19011438616827808, 0.1322675130346404, -0.2603525876195714, 0.4536515705688491, 0.13912072788860225, 0.5736034686040681, -0.18212182883316017, -0.18210869050870437, 0.301297810941952, 0.19800820533112484], [-0.012217675389800656, 0.09394727948354013, -0.4836181466882183, -0.042714519667105474, -0.43261247482059906, 0.896267685446848, 0.1388813090473344, -0.18579883259612573, 0.001044151241076293, 0.2468952447275323, 0.2620469978213158, -0.46240668783047206, -0.30038750631578987, -0.1813183856745879], [-0.41778992530007353, -0.040616591518586, 0.391889327410224, 0.23628525135307082, 0.22390523288625647, 0.034992844256732006, 0.07520188458925049, -0.2797326400929788, 0.03273844094671624, -0.15773251019477574, 0.1731387368719331, -0.1711480220538981, -0.10927678739311493, 0.22304196092274153], [-0.1427702463054198, -0.11742506240914433, 0.17002958776658902, 0.252295637048512, 0.09209813966282554, -0.17321129968879334, 0.28641623062222493, 0.1274266633204316, -0.3262277348316471, 0.20017448329812876, 0.009529269252763397, -0.2686820061365753, 0.08608314718020645, -0.014814211627380116], [-0.0036370270638225316, 0.16304827062868874, 0.20841442142466907, -0.1422352139700557, -0.20778694140700954, -0.3203508388849331, 0.05148168482116068, 0.0044918419323018155, -0.10116938231517252, 0.25034293892252313, 0.24446142394152384, -0.19761682493163224, 0.07035398426672008, -0.672662328588252], [0.23390552888128957, 0.07674721828842612, -0.23118800517424712, -0.12369590903900222, 0.5220603343888099, -0.07333182208289282, -0.3101799985677695, 0.18479378502545826, 0.07357436493259362, 0.5541388281642456, -0.6407419730833357, 0.1488830352995465, 0.20568426234931855, -0.10119193789128114], [0.08918742820197575, -0.0035734841356289703, -0.10337519011227637, -0.1682760732269871, -0.01858632552075263, -0.47924414128016596, -0.025681982769899508, -0.43864716516064733, 0.5202061319295711, 0.12171768753915371, 0.06409769830660832, -0.014820522937292899, -0.4436879166117323, -0.3829756747841677], [0.19877308203350136, 0.04205239952923969, 0.4911439417604173, -0.1351926819776241, -0.09419380786332598, 0.06558978923282403, 0.153678169555191, -0.102389402459188, 0.39928370959789267, 0.09682158556798438, 0.40402802405953614, 0.28647249588339324, -0.046304562037510585, -0.4138161736843281], [0.007484373729080219, -0.36764953532100525, -0.015070898301157333, -0.05789961645602555, 0.074695633609204, 0.31198354506874876, -0.32993848289561506, -0.043617359540269476, -0.04892017776291138, 0.32587397764465065, 0.10365104019848789, -0.08484923105134247, 0.2626027006991949, 0.303809244867074], [-0.18785208708104134, -0.31126969671158605, -0.39178662830575034, 0.06568100081925779, 0.3540829850335928, -0.25796861459049214, 0.06599512081741907, -0.28705191475461056, -0.08468146624569069, 0.25574319814763824, -0.24575441633864006, 0.17475940887820665, 0.02885979641838723, -0.28513063004539724], [-0.09566560349422208, -0.18522513160855283, -0.19226222130636642, -0.1513223715016716, 0.035297935697600556, -0.09665613955675609, -0.1498734598299174, -0.22044110893839247, 0.555894979870152, 0.3224480178468868, -0.08030365646366038, -0.23013105204854536, -0.09137619312338152, -0.18098704090891168], [-0.26571896011457574, -0.2265183471128468, 0.36545363613824666, -0.1763655949611593, -0.13399084289830154, 0.018656598108995608, -0.10011734106147242, 0.4646314236579393, -0.24081413116435593, -0.28488313447864994, 0.22990918702559518, 0.19839657792847856, 0.02465699587225223, 0.28956635095370187], [-0.07718806011409064, -0.21702896737983546, -0.317473593531627, 0.1676965090406488, 0.4318544139813821, 0.4025207958279678, 0.13554535519906666, -0.008496101803695885, -0.4098798900574961, 0.10873513786403237, 0.38392238025892406, 0.12929589610664532, -0.055318196937711464, 0.0398947741728403], [0.021964975996292397, 0.33249580471827594, -0.0015983874091863358, 0.2326202160097255, -0.2690886211464734, -0.2492681942298613, -0.1691000982802235, -0.2269072416465551, -0.513414365957216, -0.17243387605989546, 0.1209230181980641, 0.12689283749807984, 0.07604815820278911, -0.15788347187102658], [0.2653194189212346, 0.25996433266166025, 0.14802868435960007, 0.2577619421586014, -0.19727319568555182, -0.20849416455499012, 0.2773616724920586, -0.29999493820609385, 0.12505226153961718, -0.21301783943259256, -0.5791211478856564, 0.20840250621719297, 0.38447058774368115, -0.3681001644592101], [0.5760353553431827, -0.16455267671313556, 0.6737645544185177, 0.15703945555993046, -0.3071126000851684, -0.2885255715540897, -0.02666701581128894, -0.035759145282348866, -0.37889154039798384, 0.06970460945694423, -0.22269129678897107, 0.19392821205356908, -0.19045454633012232, 0.4303405474265693]], [[-0.11561761691116118, -0.05030384387864643, 0.19196747486396226, -0.39323468667564965, -0.14557382927006923, -0.1433019339514274, -0.6277034458347012, -0.20527431130291168, -0.3070391372857609, -0.3327872602161385, -0.22830516159765407, -0.1199380215250262, 0.1302805744996473, 0.08704972183391779, 0.04998020920980924, 0.11599549233687606, -0.03629157404304283, 0.022224929362032256, -0.1640833148617938, -0.369523121822545, -0.19698708016415023, -0.03329158961331211, -0.25613990630234185, 0.12896865758874662, -0.11594064427754161, -0.11113724921520662, 0.23697448077487093, 0.2015639254626823, -0.28931637625078754, 0.23791400062808427], [-0.027093252859751858, -0.13132521713189446, -0.0691690111911025, -0.45631643727362725, -0.1662062860703185, 0.07196968769089815, -0.19171224022142053, 0.12917768092272722, -0.0284337106523474, -0.40015827349431937, -0.2931653278138071, -0.14176364326882887, 0.16207588919651217, -0.060691392173280276, -0.24497295600436947, -0.04181460598151722, -0.23008157230089823, -0.08647430190950321, 0.042420273062837806, 0.02025571517341742, -0.44844033907587527, -0.22039948316197808, -0.26774743690032493, -0.10986663523954489, 0.0778420942849526, -0.10349148981271067, -0.18571285236036253, -0.21415082115405082, -0.019470863447738036, -0.052337791324685086], [0.004964039633789857, 0.16123236469635294, -0.17222491944098678, 0.30296360109377884, -0.054226731554395405, 0.034619463731446434, 0.17827024424716004, -0.13409399166227895, 0.12898140775810452, 0.12192255755005427, 0.07231903871685649, -0.08443772954971439, -0.05444729625791424, -0.08314306582354737, 0.1987328518479238, -0.15604971862369388, 0.1448149951222038, 0.02605655340470662, 0.18001609947176764, 0.15163883033086212, 0.027139327503835298, 0.0484059683802744, 0.056654502640008944, -0.12345363957931235, 0.2240760466992515, -0.15190021716589966, -0.31665116043025227, -0.021423754513938652, -0.15950705884797642, 0.006677622873094417], [0.14237028332811769, -0.36225309897148655, -0.002437366923653126, -0.32649080833253846, -0.2922152083773092, -0.11579099274593362, -0.0808848840590322, -0.15203473035501655, 0.03491006961453688, -0.31303933336865863, -0.10284441730424186, -0.3596981991862108, 0.18585664654402667, -0.5755933341598276, -0.11761295687625008, -0.22931179431980636, 0.1131739648125084, 0.0789930615787578, -0.3018877759786791, -0.3992486684775298, -0.14682439118997798, -0.0691463329663804, -0.24689172315346536, -0.053464386238807005, -0.12619611429738425, 0.08634525283645356, 0.013082236041818466, -0.018757024321076825, -0.2847256805549833, -0.15725450836235547], [0.03059516457145513, 0.3720610381895861, -0.3244104095074717, -0.21573093727505022, 0.07213034618743627, -0.1501367099462943, 0.12348602405115977, -0.08992281210872957, 0.09486267365514876, -0.15359953613795538, 0.057854224903360556, 0.08256667474786915, -0.005594275599022666, 0.12376243849605086, -0.25050508336047445, 0.0647137654796346, -0.3458264038612897, -0.29659253294683896, -0.1455736947186641, -0.2312230105406424, 0.16691396439584125, -0.2013458400421981, -0.27294209199967634, -0.1575523566169874, 0.32160338920022635, -0.14686331705035127, -0.4231777271891746, -0.06744738765434219, -0.29317495464658894, -0.3115931871176705]]], "biases": [[[-0.4949593508975503], [-0.03900190001577197], [0.6361762104585563], [1.5875967453703135], [-1.7243973470982787], [0.9732846111128057], [-1.2438551432607183], [-0.9212708944878785], [-0.23126565493650458], [1.2684173949183994], [0.0864918493618612], [-0.7411364093788337], [0.16779193930209094], [-0.41107245973015744], [-1.0707790091885272], [0.06394779581019266], [0.3506131162061891], [0.08374393669421358], [-1.8118409734005296], [1.310290273380416], [-0.25855366280917164], [1.8458316897257416], [0.13505063068920206], [-0.24129611835622106], [-1.6362065484708053], [1.7460750149001893], [-0.3239826351258308], [-1.6219411958124832], [-1.4271974624381347], [-0.6639655294921469]], [[-0.0991136531414641], [0.8229467086110397], [-0.09471334068372331], [0.9631494444051862], [0.4779808347566647]]], "cost": "CrossEntropyCost"}